<?xml version="1.0" encoding="UTF-8" standalone="yes"?>
<PMML xmlns="http://www.dmg.org/PMML-4_4" xmlns:data="http://jpmml.org/jpmml-model/InlineTable" version="4.4">
	<Header>
		<Application name="JPMML-SkLearn" version="1.6.25"/>
		<Timestamp>2021-08-06T08:50:04Z</Timestamp>
	</Header>
	<MiningBuildTask>
		<Extension name="repr">PMMLPipeline(steps=[('regressor', DecisionTreeRegressor(max_depth=25))])</Extension>
	</MiningBuildTask>
	<DataDictionary>
		<DataField name="y" optype="continuous" dataType="double"/>
		<DataField name="x2" optype="continuous" dataType="float"/>
		<DataField name="x4" optype="continuous" dataType="float"/>
		<DataField name="x5" optype="continuous" dataType="float"/>
		<DataField name="x9" optype="continuous" dataType="float"/>
		<DataField name="x11" optype="continuous" dataType="float"/>
		<DataField name="x12" optype="continuous" dataType="float"/>
		<DataField name="x17" optype="continuous" dataType="float"/>
		<DataField name="x30" optype="continuous" dataType="float"/>
		<DataField name="x32" optype="continuous" dataType="float"/>
		<DataField name="x35" optype="continuous" dataType="float"/>
		<DataField name="x36" optype="continuous" dataType="float"/>
		<DataField name="x40" optype="continuous" dataType="float"/>
		<DataField name="x43" optype="continuous" dataType="float"/>
		<DataField name="x52" optype="continuous" dataType="float"/>
		<DataField name="x61" optype="continuous" dataType="float"/>
		<DataField name="x63" optype="continuous" dataType="float"/>
		<DataField name="x74" optype="continuous" dataType="float"/>
		<DataField name="x75" optype="continuous" dataType="float"/>
		<DataField name="x92" optype="continuous" dataType="float"/>
		<DataField name="x94" optype="continuous" dataType="float"/>
		<DataField name="x95" optype="continuous" dataType="float"/>
		<DataField name="x97" optype="continuous" dataType="float"/>
		<DataField name="x123" optype="continuous" dataType="float"/>
		<DataField name="x126" optype="continuous" dataType="float"/>
		<DataField name="x136" optype="continuous" dataType="float"/>
		<DataField name="x154" optype="continuous" dataType="float"/>
		<DataField name="x156" optype="continuous" dataType="float"/>
		<DataField name="x157" optype="continuous" dataType="float"/>
		<DataField name="x167" optype="continuous" dataType="float"/>
		<DataField name="x185" optype="continuous" dataType="float"/>
		<DataField name="x198" optype="continuous" dataType="float"/>
		<DataField name="x216" optype="continuous" dataType="float"/>
		<DataField name="x218" optype="continuous" dataType="float"/>
		<DataField name="x222" optype="continuous" dataType="float"/>
		<DataField name="x229" optype="continuous" dataType="float"/>
		<DataField name="x247" optype="continuous" dataType="float"/>
		<DataField name="x252" optype="continuous" dataType="float"/>
		<DataField name="x253" optype="continuous" dataType="float"/>
		<DataField name="x259" optype="continuous" dataType="float"/>
		<DataField name="x260" optype="continuous" dataType="float"/>
		<DataField name="x263" optype="continuous" dataType="float"/>
		<DataField name="x278" optype="continuous" dataType="float"/>
		<DataField name="x291" optype="continuous" dataType="float"/>
		<DataField name="x292" optype="continuous" dataType="float"/>
		<DataField name="x309" optype="continuous" dataType="float"/>
		<DataField name="x315" optype="continuous" dataType="float"/>
		<DataField name="x322" optype="continuous" dataType="float"/>
		<DataField name="x340" optype="continuous" dataType="float"/>
		<DataField name="x346" optype="continuous" dataType="float"/>
		<DataField name="x349" optype="continuous" dataType="float"/>
		<DataField name="x350" optype="continuous" dataType="float"/>
		<DataField name="x353" optype="continuous" dataType="float"/>
		<DataField name="x358" optype="continuous" dataType="float"/>
		<DataField name="x359" optype="continuous" dataType="float"/>
		<DataField name="x371" optype="continuous" dataType="float"/>
		<DataField name="x380" optype="continuous" dataType="float"/>
		<DataField name="x384" optype="continuous" dataType="float"/>
		<DataField name="x402" optype="continuous" dataType="float"/>
		<DataField name="x415" optype="continuous" dataType="float"/>
		<DataField name="x433" optype="continuous" dataType="float"/>
		<DataField name="x438" optype="continuous" dataType="float"/>
		<DataField name="x439" optype="continuous" dataType="float"/>
		<DataField name="x446" optype="continuous" dataType="float"/>
		<DataField name="x464" optype="continuous" dataType="float"/>
		<DataField name="x469" optype="continuous" dataType="float"/>
		<DataField name="x477" optype="continuous" dataType="float"/>
		<DataField name="x479" optype="continuous" dataType="float"/>
		<DataField name="x480" optype="continuous" dataType="float"/>
		<DataField name="x495" optype="continuous" dataType="float"/>
		<DataField name="x496" optype="continuous" dataType="float"/>
		<DataField name="x500" optype="continuous" dataType="float"/>
		<DataField name="x508" optype="continuous" dataType="float"/>
		<DataField name="x509" optype="continuous" dataType="float"/>
		<DataField name="x526" optype="continuous" dataType="float"/>
		<DataField name="x528" optype="continuous" dataType="float"/>
		<DataField name="x533" optype="continuous" dataType="float"/>
		<DataField name="x539" optype="continuous" dataType="float"/>
		<DataField name="x543" optype="continuous" dataType="float"/>
		<DataField name="x557" optype="continuous" dataType="float"/>
		<DataField name="x562" optype="continuous" dataType="float"/>
		<DataField name="x568" optype="continuous" dataType="float"/>
		<DataField name="x570" optype="continuous" dataType="float"/>
		<DataField name="x576" optype="continuous" dataType="float"/>
		<DataField name="x588" optype="continuous" dataType="float"/>
		<DataField name="x597" optype="continuous" dataType="float"/>
		<DataField name="x600" optype="continuous" dataType="float"/>
		<DataField name="x601" optype="continuous" dataType="float"/>
		<DataField name="x619" optype="continuous" dataType="float"/>
		<DataField name="x621" optype="continuous" dataType="float"/>
		<DataField name="x632" optype="continuous" dataType="float"/>
		<DataField name="x650" optype="continuous" dataType="float"/>
		<DataField name="x651" optype="continuous" dataType="float"/>
		<DataField name="x655" optype="continuous" dataType="float"/>
		<DataField name="x663" optype="continuous" dataType="float"/>
		<DataField name="x681" optype="continuous" dataType="float"/>
		<DataField name="x686" optype="continuous" dataType="float"/>
		<DataField name="x694" optype="continuous" dataType="float"/>
		<DataField name="x697" optype="continuous" dataType="float"/>
		<DataField name="x712" optype="continuous" dataType="float"/>
		<DataField name="x717" optype="continuous" dataType="float"/>
		<DataField name="x718" optype="continuous" dataType="float"/>
		<DataField name="x719" optype="continuous" dataType="float"/>
		<DataField name="x725" optype="continuous" dataType="float"/>
		<DataField name="x726" optype="continuous" dataType="float"/>
		<DataField name="x743" optype="continuous" dataType="float"/>
		<DataField name="x745" optype="continuous" dataType="float"/>
		<DataField name="x750" optype="continuous" dataType="float"/>
		<DataField name="x756" optype="continuous" dataType="float"/>
		<DataField name="x774" optype="continuous" dataType="float"/>
		<DataField name="x776" optype="continuous" dataType="float"/>
		<DataField name="x787" optype="continuous" dataType="float"/>
		<DataField name="x805" optype="continuous" dataType="float"/>
		<DataField name="x818" optype="continuous" dataType="float"/>
		<DataField name="x836" optype="continuous" dataType="float"/>
		<DataField name="x838" optype="continuous" dataType="float"/>
		<DataField name="x849" optype="continuous" dataType="float"/>
		<DataField name="x855" optype="continuous" dataType="float"/>
		<DataField name="x867" optype="continuous" dataType="float"/>
		<DataField name="x873" optype="continuous" dataType="float"/>
		<DataField name="x880" optype="continuous" dataType="float"/>
		<DataField name="x898" optype="continuous" dataType="float"/>
		<DataField name="x900" optype="continuous" dataType="float"/>
		<DataField name="x911" optype="continuous" dataType="float"/>
		<DataField name="x929" optype="continuous" dataType="float"/>
		<DataField name="x942" optype="continuous" dataType="float"/>
		<DataField name="x943" optype="continuous" dataType="float"/>
		<DataField name="x960" optype="continuous" dataType="float"/>
		<DataField name="x972" optype="continuous" dataType="float"/>
		<DataField name="x973" optype="continuous" dataType="float"/>
		<DataField name="x977" optype="continuous" dataType="float"/>
		<DataField name="x991" optype="continuous" dataType="float"/>
		<DataField name="x1004" optype="continuous" dataType="float"/>
		<DataField name="x1010" optype="continuous" dataType="float"/>
		<DataField name="x1022" optype="continuous" dataType="float"/>
		<DataField name="x1035" optype="continuous" dataType="float"/>
		<DataField name="x1053" optype="continuous" dataType="float"/>
		<DataField name="x1066" optype="continuous" dataType="float"/>
		<DataField name="x1084" optype="continuous" dataType="float"/>
		<DataField name="x1085" optype="continuous" dataType="float"/>
		<DataField name="x1087" optype="continuous" dataType="float"/>
		<DataField name="x1089" optype="continuous" dataType="float"/>
		<DataField name="x1097" optype="continuous" dataType="float"/>
		<DataField name="x1115" optype="continuous" dataType="float"/>
		<DataField name="x1116" optype="continuous" dataType="float"/>
		<DataField name="x1120" optype="continuous" dataType="float"/>
		<DataField name="x1128" optype="continuous" dataType="float"/>
		<DataField name="x1146" optype="continuous" dataType="float"/>
		<DataField name="x1151" optype="continuous" dataType="float"/>
		<DataField name="x1159" optype="continuous" dataType="float"/>
		<DataField name="x1160" optype="continuous" dataType="float"/>
		<DataField name="x1177" optype="continuous" dataType="float"/>
		<DataField name="x1179" optype="continuous" dataType="float"/>
		<DataField name="x1190" optype="continuous" dataType="float"/>
		<DataField name="x1208" optype="continuous" dataType="float"/>
		<DataField name="x1214" optype="continuous" dataType="float"/>
		<DataField name="x1221" optype="continuous" dataType="float"/>
		<DataField name="x1239" optype="continuous" dataType="float"/>
		<DataField name="x1249" optype="continuous" dataType="float"/>
		<DataField name="x1252" optype="continuous" dataType="float"/>
		<DataField name="x1253" optype="continuous" dataType="float"/>
		<DataField name="x1270" optype="continuous" dataType="float"/>
		<DataField name="x1283" optype="continuous" dataType="float"/>
		<DataField name="x1301" optype="continuous" dataType="float"/>
		<DataField name="x1302" optype="continuous" dataType="float"/>
		<DataField name="x1306" optype="continuous" dataType="float"/>
		<DataField name="x1307" optype="continuous" dataType="float"/>
		<DataField name="x1314" optype="continuous" dataType="float"/>
		<DataField name="x1326" optype="continuous" dataType="float"/>
		<DataField name="x1332" optype="continuous" dataType="float"/>
		<DataField name="x1333" optype="continuous" dataType="float"/>
		<DataField name="x1334" optype="continuous" dataType="float"/>
		<DataField name="x1337" optype="continuous" dataType="float"/>
		<DataField name="x1341" optype="continuous" dataType="float"/>
		<DataField name="x1345" optype="continuous" dataType="float"/>
		<DataField name="x1363" optype="continuous" dataType="float"/>
		<DataField name="x1365" optype="continuous" dataType="float"/>
		<DataField name="x1376" optype="continuous" dataType="float"/>
		<DataField name="x1377" optype="continuous" dataType="float"/>
		<DataField name="x1394" optype="continuous" dataType="float"/>
		<DataField name="x1401" optype="continuous" dataType="float"/>
		<DataField name="x1407" optype="continuous" dataType="float"/>
		<DataField name="x1411" optype="continuous" dataType="float"/>
		<DataField name="x1425" optype="continuous" dataType="float"/>
		<DataField name="x1427" optype="continuous" dataType="float"/>
		<DataField name="x1430" optype="continuous" dataType="float"/>
		<DataField name="x1431" optype="continuous" dataType="float"/>
		<DataField name="x1434" optype="continuous" dataType="float"/>
		<DataField name="x1435" optype="continuous" dataType="float"/>
		<DataField name="x1437" optype="continuous" dataType="float"/>
		<DataField name="x1438" optype="continuous" dataType="float"/>
		<DataField name="x1439" optype="continuous" dataType="float"/>
		<DataField name="x1456" optype="continuous" dataType="float"/>
		<DataField name="x1458" optype="continuous" dataType="float"/>
		<DataField name="x1468" optype="continuous" dataType="float"/>
		<DataField name="x1469" optype="continuous" dataType="float"/>
		<DataField name="x1487" optype="continuous" dataType="float"/>
		<DataField name="x1489" optype="continuous" dataType="float"/>
		<DataField name="x1500" optype="continuous" dataType="float"/>
		<DataField name="x1518" optype="continuous" dataType="float"/>
	</DataDictionary>
	<TreeModel functionName="regression" algorithmName="sklearn.tree._classes.DecisionTreeRegressor" missingValueStrategy="nullPrediction" noTrueChildStrategy="returnLastPrediction">
		<MiningSchema>
			<MiningField name="y" usageType="target"/>
			<MiningField name="x229"/>
			<MiningField name="x1190"/>
			<MiningField name="x32"/>
			<MiningField name="x218"/>
			<MiningField name="x63"/>
			<MiningField name="x787"/>
			<MiningField name="x5"/>
			<MiningField name="x873"/>
			<MiningField name="x508"/>
			<MiningField name="x1307"/>
			<MiningField name="x1179"/>
			<MiningField name="x43"/>
			<MiningField name="x1427"/>
			<MiningField name="x1489"/>
			<MiningField name="x439"/>
			<MiningField name="x384"/>
			<MiningField name="x1458"/>
			<MiningField name="x1411"/>
			<MiningField name="x17"/>
			<MiningField name="x198"/>
			<MiningField name="x94"/>
			<MiningField name="x1334"/>
			<MiningField name="x977"/>
			<MiningField name="x543"/>
			<MiningField name="x1365"/>
			<MiningField name="x1177"/>
			<MiningField name="x36"/>
			<MiningField name="x167"/>
			<MiningField name="x1208"/>
			<MiningField name="x557"/>
			<MiningField name="x247"/>
			<MiningField name="x1401"/>
			<MiningField name="x495"/>
			<MiningField name="x849"/>
			<MiningField name="x1146"/>
			<MiningField name="x650"/>
			<MiningField name="x929"/>
			<MiningField name="x1500"/>
			<MiningField name="x1053"/>
			<MiningField name="x315"/>
			<MiningField name="x1116"/>
			<MiningField name="x1270"/>
			<MiningField name="x1066"/>
			<MiningField name="x1430"/>
			<MiningField name="x123"/>
			<MiningField name="x157"/>
			<MiningField name="x1301"/>
			<MiningField name="x216"/>
			<MiningField name="x1518"/>
			<MiningField name="x433"/>
			<MiningField name="x1438"/>
			<MiningField name="x632"/>
			<MiningField name="x1363"/>
			<MiningField name="x539"/>
			<MiningField name="x322"/>
			<MiningField name="x1376"/>
			<MiningField name="x1253"/>
			<MiningField name="x253"/>
			<MiningField name="x154"/>
			<MiningField name="x464"/>
			<MiningField name="x570"/>
			<MiningField name="x1314"/>
			<MiningField name="x1332"/>
			<MiningField name="x601"/>
			<MiningField name="x1469"/>
			<MiningField name="x898"/>
			<MiningField name="x991"/>
			<MiningField name="x1425"/>
			<MiningField name="x562"/>
			<MiningField name="x867"/>
			<MiningField name="x500"/>
			<MiningField name="x712"/>
			<MiningField name="x663"/>
			<MiningField name="x1487"/>
			<MiningField name="x1306"/>
			<MiningField name="x4"/>
			<MiningField name="x446"/>
			<MiningField name="x1097"/>
			<MiningField name="x619"/>
			<MiningField name="x818"/>
			<MiningField name="x260"/>
			<MiningField name="x92"/>
			<MiningField name="x340"/>
			<MiningField name="x185"/>
			<MiningField name="x259"/>
			<MiningField name="x1394"/>
			<MiningField name="x371"/>
			<MiningField name="x1437"/>
			<MiningField name="x291"/>
			<MiningField name="x1115"/>
			<MiningField name="x380"/>
			<MiningField name="x1159"/>
			<MiningField name="x1120"/>
			<MiningField name="x960"/>
			<MiningField name="x597"/>
			<MiningField name="x686"/>
			<MiningField name="x438"/>
			<MiningField name="x1010"/>
			<MiningField name="x743"/>
			<MiningField name="x942"/>
			<MiningField name="x694"/>
			<MiningField name="x402"/>
			<MiningField name="x1345"/>
			<MiningField name="x1283"/>
			<MiningField name="x61"/>
			<MiningField name="x309"/>
			<MiningField name="x349"/>
			<MiningField name="x776"/>
			<MiningField name="x1337"/>
			<MiningField name="x750"/>
			<MiningField name="x719"/>
			<MiningField name="x681"/>
			<MiningField name="x725"/>
			<MiningField name="x222"/>
			<MiningField name="x1468"/>
			<MiningField name="x1377"/>
			<MiningField name="x774"/>
			<MiningField name="x651"/>
			<MiningField name="x52"/>
			<MiningField name="x568"/>
			<MiningField name="x479"/>
			<MiningField name="x469"/>
			<MiningField name="x35"/>
			<MiningField name="x346"/>
			<MiningField name="x358"/>
			<MiningField name="x1434"/>
			<MiningField name="x1214"/>
			<MiningField name="x1326"/>
			<MiningField name="x350"/>
			<MiningField name="x600"/>
			<MiningField name="x836"/>
			<MiningField name="x621"/>
			<MiningField name="x838"/>
			<MiningField name="x156"/>
			<MiningField name="x263"/>
			<MiningField name="x480"/>
			<MiningField name="x526"/>
			<MiningField name="x697"/>
			<MiningField name="x1252"/>
			<MiningField name="x1435"/>
			<MiningField name="x1431"/>
			<MiningField name="x1249"/>
			<MiningField name="x1084"/>
			<MiningField name="x1341"/>
			<MiningField name="x74"/>
			<MiningField name="x726"/>
			<MiningField name="x943"/>
			<MiningField name="x509"/>
			<MiningField name="x1160"/>
			<MiningField name="x292"/>
			<MiningField name="x1407"/>
			<MiningField name="x75"/>
			<MiningField name="x278"/>
			<MiningField name="x533"/>
			<MiningField name="x1456"/>
			<MiningField name="x718"/>
			<MiningField name="x40"/>
			<MiningField name="x588"/>
			<MiningField name="x1439"/>
			<MiningField name="x97"/>
			<MiningField name="x126"/>
			<MiningField name="x136"/>
			<MiningField name="x756"/>
			<MiningField name="x655"/>
			<MiningField name="x12"/>
			<MiningField name="x30"/>
			<MiningField name="x1221"/>
			<MiningField name="x353"/>
			<MiningField name="x1022"/>
			<MiningField name="x1239"/>
			<MiningField name="x717"/>
			<MiningField name="x855"/>
			<MiningField name="x252"/>
			<MiningField name="x1333"/>
			<MiningField name="x911"/>
			<MiningField name="x1035"/>
			<MiningField name="x1151"/>
			<MiningField name="x1004"/>
			<MiningField name="x496"/>
			<MiningField name="x972"/>
			<MiningField name="x1128"/>
			<MiningField name="x1089"/>
			<MiningField name="x805"/>
			<MiningField name="x9"/>
			<MiningField name="x973"/>
			<MiningField name="x95"/>
			<MiningField name="x415"/>
			<MiningField name="x1302"/>
			<MiningField name="x576"/>
			<MiningField name="x359"/>
			<MiningField name="x528"/>
			<MiningField name="x745"/>
			<MiningField name="x477"/>
			<MiningField name="x880"/>
			<MiningField name="x11"/>
			<MiningField name="x1087"/>
			<MiningField name="x900"/>
			<MiningField name="x1085"/>
			<MiningField name="x2"/>
		</MiningSchema>
		<LocalTransformations>
			<DerivedField name="double(x229)" optype="continuous" dataType="double">
				<FieldRef field="x229"/>
			</DerivedField>
			<DerivedField name="double(x1190)" optype="continuous" dataType="double">
				<FieldRef field="x1190"/>
			</DerivedField>
			<DerivedField name="double(x32)" optype="continuous" dataType="double">
				<FieldRef field="x32"/>
			</DerivedField>
			<DerivedField name="double(x218)" optype="continuous" dataType="double">
				<FieldRef field="x218"/>
			</DerivedField>
			<DerivedField name="double(x63)" optype="continuous" dataType="double">
				<FieldRef field="x63"/>
			</DerivedField>
			<DerivedField name="double(x787)" optype="continuous" dataType="double">
				<FieldRef field="x787"/>
			</DerivedField>
			<DerivedField name="double(x5)" optype="continuous" dataType="double">
				<FieldRef field="x5"/>
			</DerivedField>
			<DerivedField name="double(x873)" optype="continuous" dataType="double">
				<FieldRef field="x873"/>
			</DerivedField>
			<DerivedField name="double(x508)" optype="continuous" dataType="double">
				<FieldRef field="x508"/>
			</DerivedField>
			<DerivedField name="double(x1307)" optype="continuous" dataType="double">
				<FieldRef field="x1307"/>
			</DerivedField>
			<DerivedField name="double(x1179)" optype="continuous" dataType="double">
				<FieldRef field="x1179"/>
			</DerivedField>
			<DerivedField name="double(x43)" optype="continuous" dataType="double">
				<FieldRef field="x43"/>
			</DerivedField>
			<DerivedField name="double(x1427)" optype="continuous" dataType="double">
				<FieldRef field="x1427"/>
			</DerivedField>
			<DerivedField name="double(x1489)" optype="continuous" dataType="double">
				<FieldRef field="x1489"/>
			</DerivedField>
			<DerivedField name="double(x439)" optype="continuous" dataType="double">
				<FieldRef field="x439"/>
			</DerivedField>
			<DerivedField name="double(x384)" optype="continuous" dataType="double">
				<FieldRef field="x384"/>
			</DerivedField>
			<DerivedField name="double(x1458)" optype="continuous" dataType="double">
				<FieldRef field="x1458"/>
			</DerivedField>
			<DerivedField name="double(x1411)" optype="continuous" dataType="double">
				<FieldRef field="x1411"/>
			</DerivedField>
			<DerivedField name="double(x17)" optype="continuous" dataType="double">
				<FieldRef field="x17"/>
			</DerivedField>
			<DerivedField name="double(x198)" optype="continuous" dataType="double">
				<FieldRef field="x198"/>
			</DerivedField>
			<DerivedField name="double(x94)" optype="continuous" dataType="double">
				<FieldRef field="x94"/>
			</DerivedField>
			<DerivedField name="double(x1334)" optype="continuous" dataType="double">
				<FieldRef field="x1334"/>
			</DerivedField>
			<DerivedField name="double(x977)" optype="continuous" dataType="double">
				<FieldRef field="x977"/>
			</DerivedField>
			<DerivedField name="double(x543)" optype="continuous" dataType="double">
				<FieldRef field="x543"/>
			</DerivedField>
			<DerivedField name="double(x1365)" optype="continuous" dataType="double">
				<FieldRef field="x1365"/>
			</DerivedField>
			<DerivedField name="double(x1177)" optype="continuous" dataType="double">
				<FieldRef field="x1177"/>
			</DerivedField>
			<DerivedField name="double(x36)" optype="continuous" dataType="double">
				<FieldRef field="x36"/>
			</DerivedField>
			<DerivedField name="double(x167)" optype="continuous" dataType="double">
				<FieldRef field="x167"/>
			</DerivedField>
			<DerivedField name="double(x1208)" optype="continuous" dataType="double">
				<FieldRef field="x1208"/>
			</DerivedField>
			<DerivedField name="double(x557)" optype="continuous" dataType="double">
				<FieldRef field="x557"/>
			</DerivedField>
			<DerivedField name="double(x247)" optype="continuous" dataType="double">
				<FieldRef field="x247"/>
			</DerivedField>
			<DerivedField name="double(x1401)" optype="continuous" dataType="double">
				<FieldRef field="x1401"/>
			</DerivedField>
			<DerivedField name="double(x495)" optype="continuous" dataType="double">
				<FieldRef field="x495"/>
			</DerivedField>
			<DerivedField name="double(x849)" optype="continuous" dataType="double">
				<FieldRef field="x849"/>
			</DerivedField>
			<DerivedField name="double(x1146)" optype="continuous" dataType="double">
				<FieldRef field="x1146"/>
			</DerivedField>
			<DerivedField name="double(x650)" optype="continuous" dataType="double">
				<FieldRef field="x650"/>
			</DerivedField>
			<DerivedField name="double(x929)" optype="continuous" dataType="double">
				<FieldRef field="x929"/>
			</DerivedField>
			<DerivedField name="double(x1500)" optype="continuous" dataType="double">
				<FieldRef field="x1500"/>
			</DerivedField>
			<DerivedField name="double(x1053)" optype="continuous" dataType="double">
				<FieldRef field="x1053"/>
			</DerivedField>
			<DerivedField name="double(x315)" optype="continuous" dataType="double">
				<FieldRef field="x315"/>
			</DerivedField>
			<DerivedField name="double(x1116)" optype="continuous" dataType="double">
				<FieldRef field="x1116"/>
			</DerivedField>
			<DerivedField name="double(x1270)" optype="continuous" dataType="double">
				<FieldRef field="x1270"/>
			</DerivedField>
			<DerivedField name="double(x1066)" optype="continuous" dataType="double">
				<FieldRef field="x1066"/>
			</DerivedField>
			<DerivedField name="double(x1430)" optype="continuous" dataType="double">
				<FieldRef field="x1430"/>
			</DerivedField>
			<DerivedField name="double(x123)" optype="continuous" dataType="double">
				<FieldRef field="x123"/>
			</DerivedField>
			<DerivedField name="double(x157)" optype="continuous" dataType="double">
				<FieldRef field="x157"/>
			</DerivedField>
			<DerivedField name="double(x1301)" optype="continuous" dataType="double">
				<FieldRef field="x1301"/>
			</DerivedField>
			<DerivedField name="double(x216)" optype="continuous" dataType="double">
				<FieldRef field="x216"/>
			</DerivedField>
			<DerivedField name="double(x1518)" optype="continuous" dataType="double">
				<FieldRef field="x1518"/>
			</DerivedField>
			<DerivedField name="double(x433)" optype="continuous" dataType="double">
				<FieldRef field="x433"/>
			</DerivedField>
			<DerivedField name="double(x1438)" optype="continuous" dataType="double">
				<FieldRef field="x1438"/>
			</DerivedField>
			<DerivedField name="double(x632)" optype="continuous" dataType="double">
				<FieldRef field="x632"/>
			</DerivedField>
			<DerivedField name="double(x1363)" optype="continuous" dataType="double">
				<FieldRef field="x1363"/>
			</DerivedField>
			<DerivedField name="double(x539)" optype="continuous" dataType="double">
				<FieldRef field="x539"/>
			</DerivedField>
			<DerivedField name="double(x322)" optype="continuous" dataType="double">
				<FieldRef field="x322"/>
			</DerivedField>
			<DerivedField name="double(x1376)" optype="continuous" dataType="double">
				<FieldRef field="x1376"/>
			</DerivedField>
			<DerivedField name="double(x1253)" optype="continuous" dataType="double">
				<FieldRef field="x1253"/>
			</DerivedField>
			<DerivedField name="double(x253)" optype="continuous" dataType="double">
				<FieldRef field="x253"/>
			</DerivedField>
			<DerivedField name="double(x154)" optype="continuous" dataType="double">
				<FieldRef field="x154"/>
			</DerivedField>
			<DerivedField name="double(x464)" optype="continuous" dataType="double">
				<FieldRef field="x464"/>
			</DerivedField>
			<DerivedField name="double(x570)" optype="continuous" dataType="double">
				<FieldRef field="x570"/>
			</DerivedField>
			<DerivedField name="double(x1314)" optype="continuous" dataType="double">
				<FieldRef field="x1314"/>
			</DerivedField>
			<DerivedField name="double(x1332)" optype="continuous" dataType="double">
				<FieldRef field="x1332"/>
			</DerivedField>
			<DerivedField name="double(x601)" optype="continuous" dataType="double">
				<FieldRef field="x601"/>
			</DerivedField>
			<DerivedField name="double(x1469)" optype="continuous" dataType="double">
				<FieldRef field="x1469"/>
			</DerivedField>
			<DerivedField name="double(x898)" optype="continuous" dataType="double">
				<FieldRef field="x898"/>
			</DerivedField>
			<DerivedField name="double(x991)" optype="continuous" dataType="double">
				<FieldRef field="x991"/>
			</DerivedField>
			<DerivedField name="double(x1425)" optype="continuous" dataType="double">
				<FieldRef field="x1425"/>
			</DerivedField>
			<DerivedField name="double(x562)" optype="continuous" dataType="double">
				<FieldRef field="x562"/>
			</DerivedField>
			<DerivedField name="double(x867)" optype="continuous" dataType="double">
				<FieldRef field="x867"/>
			</DerivedField>
			<DerivedField name="double(x500)" optype="continuous" dataType="double">
				<FieldRef field="x500"/>
			</DerivedField>
			<DerivedField name="double(x712)" optype="continuous" dataType="double">
				<FieldRef field="x712"/>
			</DerivedField>
			<DerivedField name="double(x663)" optype="continuous" dataType="double">
				<FieldRef field="x663"/>
			</DerivedField>
			<DerivedField name="double(x1487)" optype="continuous" dataType="double">
				<FieldRef field="x1487"/>
			</DerivedField>
			<DerivedField name="double(x1306)" optype="continuous" dataType="double">
				<FieldRef field="x1306"/>
			</DerivedField>
			<DerivedField name="double(x4)" optype="continuous" dataType="double">
				<FieldRef field="x4"/>
			</DerivedField>
			<DerivedField name="double(x446)" optype="continuous" dataType="double">
				<FieldRef field="x446"/>
			</DerivedField>
			<DerivedField name="double(x1097)" optype="continuous" dataType="double">
				<FieldRef field="x1097"/>
			</DerivedField>
			<DerivedField name="double(x619)" optype="continuous" dataType="double">
				<FieldRef field="x619"/>
			</DerivedField>
			<DerivedField name="double(x818)" optype="continuous" dataType="double">
				<FieldRef field="x818"/>
			</DerivedField>
			<DerivedField name="double(x260)" optype="continuous" dataType="double">
				<FieldRef field="x260"/>
			</DerivedField>
			<DerivedField name="double(x92)" optype="continuous" dataType="double">
				<FieldRef field="x92"/>
			</DerivedField>
			<DerivedField name="double(x340)" optype="continuous" dataType="double">
				<FieldRef field="x340"/>
			</DerivedField>
			<DerivedField name="double(x185)" optype="continuous" dataType="double">
				<FieldRef field="x185"/>
			</DerivedField>
			<DerivedField name="double(x259)" optype="continuous" dataType="double">
				<FieldRef field="x259"/>
			</DerivedField>
			<DerivedField name="double(x1394)" optype="continuous" dataType="double">
				<FieldRef field="x1394"/>
			</DerivedField>
			<DerivedField name="double(x371)" optype="continuous" dataType="double">
				<FieldRef field="x371"/>
			</DerivedField>
			<DerivedField name="double(x1437)" optype="continuous" dataType="double">
				<FieldRef field="x1437"/>
			</DerivedField>
			<DerivedField name="double(x291)" optype="continuous" dataType="double">
				<FieldRef field="x291"/>
			</DerivedField>
			<DerivedField name="double(x1115)" optype="continuous" dataType="double">
				<FieldRef field="x1115"/>
			</DerivedField>
			<DerivedField name="double(x380)" optype="continuous" dataType="double">
				<FieldRef field="x380"/>
			</DerivedField>
			<DerivedField name="double(x1159)" optype="continuous" dataType="double">
				<FieldRef field="x1159"/>
			</DerivedField>
			<DerivedField name="double(x1120)" optype="continuous" dataType="double">
				<FieldRef field="x1120"/>
			</DerivedField>
			<DerivedField name="double(x960)" optype="continuous" dataType="double">
				<FieldRef field="x960"/>
			</DerivedField>
			<DerivedField name="double(x597)" optype="continuous" dataType="double">
				<FieldRef field="x597"/>
			</DerivedField>
			<DerivedField name="double(x686)" optype="continuous" dataType="double">
				<FieldRef field="x686"/>
			</DerivedField>
			<DerivedField name="double(x438)" optype="continuous" dataType="double">
				<FieldRef field="x438"/>
			</DerivedField>
			<DerivedField name="double(x1010)" optype="continuous" dataType="double">
				<FieldRef field="x1010"/>
			</DerivedField>
			<DerivedField name="double(x743)" optype="continuous" dataType="double">
				<FieldRef field="x743"/>
			</DerivedField>
			<DerivedField name="double(x942)" optype="continuous" dataType="double">
				<FieldRef field="x942"/>
			</DerivedField>
			<DerivedField name="double(x694)" optype="continuous" dataType="double">
				<FieldRef field="x694"/>
			</DerivedField>
			<DerivedField name="double(x402)" optype="continuous" dataType="double">
				<FieldRef field="x402"/>
			</DerivedField>
			<DerivedField name="double(x1345)" optype="continuous" dataType="double">
				<FieldRef field="x1345"/>
			</DerivedField>
			<DerivedField name="double(x1283)" optype="continuous" dataType="double">
				<FieldRef field="x1283"/>
			</DerivedField>
			<DerivedField name="double(x61)" optype="continuous" dataType="double">
				<FieldRef field="x61"/>
			</DerivedField>
			<DerivedField name="double(x309)" optype="continuous" dataType="double">
				<FieldRef field="x309"/>
			</DerivedField>
			<DerivedField name="double(x349)" optype="continuous" dataType="double">
				<FieldRef field="x349"/>
			</DerivedField>
			<DerivedField name="double(x776)" optype="continuous" dataType="double">
				<FieldRef field="x776"/>
			</DerivedField>
			<DerivedField name="double(x1337)" optype="continuous" dataType="double">
				<FieldRef field="x1337"/>
			</DerivedField>
			<DerivedField name="double(x750)" optype="continuous" dataType="double">
				<FieldRef field="x750"/>
			</DerivedField>
			<DerivedField name="double(x719)" optype="continuous" dataType="double">
				<FieldRef field="x719"/>
			</DerivedField>
			<DerivedField name="double(x681)" optype="continuous" dataType="double">
				<FieldRef field="x681"/>
			</DerivedField>
			<DerivedField name="double(x725)" optype="continuous" dataType="double">
				<FieldRef field="x725"/>
			</DerivedField>
			<DerivedField name="double(x222)" optype="continuous" dataType="double">
				<FieldRef field="x222"/>
			</DerivedField>
			<DerivedField name="double(x1468)" optype="continuous" dataType="double">
				<FieldRef field="x1468"/>
			</DerivedField>
			<DerivedField name="double(x1377)" optype="continuous" dataType="double">
				<FieldRef field="x1377"/>
			</DerivedField>
			<DerivedField name="double(x774)" optype="continuous" dataType="double">
				<FieldRef field="x774"/>
			</DerivedField>
			<DerivedField name="double(x651)" optype="continuous" dataType="double">
				<FieldRef field="x651"/>
			</DerivedField>
			<DerivedField name="double(x52)" optype="continuous" dataType="double">
				<FieldRef field="x52"/>
			</DerivedField>
			<DerivedField name="double(x568)" optype="continuous" dataType="double">
				<FieldRef field="x568"/>
			</DerivedField>
			<DerivedField name="double(x479)" optype="continuous" dataType="double">
				<FieldRef field="x479"/>
			</DerivedField>
			<DerivedField name="double(x469)" optype="continuous" dataType="double">
				<FieldRef field="x469"/>
			</DerivedField>
			<DerivedField name="double(x35)" optype="continuous" dataType="double">
				<FieldRef field="x35"/>
			</DerivedField>
			<DerivedField name="double(x346)" optype="continuous" dataType="double">
				<FieldRef field="x346"/>
			</DerivedField>
			<DerivedField name="double(x358)" optype="continuous" dataType="double">
				<FieldRef field="x358"/>
			</DerivedField>
			<DerivedField name="double(x1434)" optype="continuous" dataType="double">
				<FieldRef field="x1434"/>
			</DerivedField>
			<DerivedField name="double(x1214)" optype="continuous" dataType="double">
				<FieldRef field="x1214"/>
			</DerivedField>
			<DerivedField name="double(x1326)" optype="continuous" dataType="double">
				<FieldRef field="x1326"/>
			</DerivedField>
			<DerivedField name="double(x350)" optype="continuous" dataType="double">
				<FieldRef field="x350"/>
			</DerivedField>
			<DerivedField name="double(x600)" optype="continuous" dataType="double">
				<FieldRef field="x600"/>
			</DerivedField>
			<DerivedField name="double(x836)" optype="continuous" dataType="double">
				<FieldRef field="x836"/>
			</DerivedField>
			<DerivedField name="double(x621)" optype="continuous" dataType="double">
				<FieldRef field="x621"/>
			</DerivedField>
			<DerivedField name="double(x838)" optype="continuous" dataType="double">
				<FieldRef field="x838"/>
			</DerivedField>
			<DerivedField name="double(x156)" optype="continuous" dataType="double">
				<FieldRef field="x156"/>
			</DerivedField>
			<DerivedField name="double(x263)" optype="continuous" dataType="double">
				<FieldRef field="x263"/>
			</DerivedField>
			<DerivedField name="double(x480)" optype="continuous" dataType="double">
				<FieldRef field="x480"/>
			</DerivedField>
			<DerivedField name="double(x526)" optype="continuous" dataType="double">
				<FieldRef field="x526"/>
			</DerivedField>
			<DerivedField name="double(x697)" optype="continuous" dataType="double">
				<FieldRef field="x697"/>
			</DerivedField>
			<DerivedField name="double(x1252)" optype="continuous" dataType="double">
				<FieldRef field="x1252"/>
			</DerivedField>
			<DerivedField name="double(x1435)" optype="continuous" dataType="double">
				<FieldRef field="x1435"/>
			</DerivedField>
			<DerivedField name="double(x1431)" optype="continuous" dataType="double">
				<FieldRef field="x1431"/>
			</DerivedField>
			<DerivedField name="double(x1249)" optype="continuous" dataType="double">
				<FieldRef field="x1249"/>
			</DerivedField>
			<DerivedField name="double(x1084)" optype="continuous" dataType="double">
				<FieldRef field="x1084"/>
			</DerivedField>
			<DerivedField name="double(x1341)" optype="continuous" dataType="double">
				<FieldRef field="x1341"/>
			</DerivedField>
			<DerivedField name="double(x74)" optype="continuous" dataType="double">
				<FieldRef field="x74"/>
			</DerivedField>
			<DerivedField name="double(x726)" optype="continuous" dataType="double">
				<FieldRef field="x726"/>
			</DerivedField>
			<DerivedField name="double(x943)" optype="continuous" dataType="double">
				<FieldRef field="x943"/>
			</DerivedField>
			<DerivedField name="double(x509)" optype="continuous" dataType="double">
				<FieldRef field="x509"/>
			</DerivedField>
			<DerivedField name="double(x1160)" optype="continuous" dataType="double">
				<FieldRef field="x1160"/>
			</DerivedField>
			<DerivedField name="double(x292)" optype="continuous" dataType="double">
				<FieldRef field="x292"/>
			</DerivedField>
			<DerivedField name="double(x1407)" optype="continuous" dataType="double">
				<FieldRef field="x1407"/>
			</DerivedField>
			<DerivedField name="double(x75)" optype="continuous" dataType="double">
				<FieldRef field="x75"/>
			</DerivedField>
			<DerivedField name="double(x278)" optype="continuous" dataType="double">
				<FieldRef field="x278"/>
			</DerivedField>
			<DerivedField name="double(x533)" optype="continuous" dataType="double">
				<FieldRef field="x533"/>
			</DerivedField>
			<DerivedField name="double(x1456)" optype="continuous" dataType="double">
				<FieldRef field="x1456"/>
			</DerivedField>
			<DerivedField name="double(x718)" optype="continuous" dataType="double">
				<FieldRef field="x718"/>
			</DerivedField>
			<DerivedField name="double(x40)" optype="continuous" dataType="double">
				<FieldRef field="x40"/>
			</DerivedField>
			<DerivedField name="double(x588)" optype="continuous" dataType="double">
				<FieldRef field="x588"/>
			</DerivedField>
			<DerivedField name="double(x1439)" optype="continuous" dataType="double">
				<FieldRef field="x1439"/>
			</DerivedField>
			<DerivedField name="double(x97)" optype="continuous" dataType="double">
				<FieldRef field="x97"/>
			</DerivedField>
			<DerivedField name="double(x126)" optype="continuous" dataType="double">
				<FieldRef field="x126"/>
			</DerivedField>
			<DerivedField name="double(x136)" optype="continuous" dataType="double">
				<FieldRef field="x136"/>
			</DerivedField>
			<DerivedField name="double(x756)" optype="continuous" dataType="double">
				<FieldRef field="x756"/>
			</DerivedField>
			<DerivedField name="double(x655)" optype="continuous" dataType="double">
				<FieldRef field="x655"/>
			</DerivedField>
			<DerivedField name="double(x12)" optype="continuous" dataType="double">
				<FieldRef field="x12"/>
			</DerivedField>
			<DerivedField name="double(x30)" optype="continuous" dataType="double">
				<FieldRef field="x30"/>
			</DerivedField>
			<DerivedField name="double(x1221)" optype="continuous" dataType="double">
				<FieldRef field="x1221"/>
			</DerivedField>
			<DerivedField name="double(x353)" optype="continuous" dataType="double">
				<FieldRef field="x353"/>
			</DerivedField>
			<DerivedField name="double(x1022)" optype="continuous" dataType="double">
				<FieldRef field="x1022"/>
			</DerivedField>
			<DerivedField name="double(x1239)" optype="continuous" dataType="double">
				<FieldRef field="x1239"/>
			</DerivedField>
			<DerivedField name="double(x717)" optype="continuous" dataType="double">
				<FieldRef field="x717"/>
			</DerivedField>
			<DerivedField name="double(x855)" optype="continuous" dataType="double">
				<FieldRef field="x855"/>
			</DerivedField>
			<DerivedField name="double(x252)" optype="continuous" dataType="double">
				<FieldRef field="x252"/>
			</DerivedField>
			<DerivedField name="double(x1333)" optype="continuous" dataType="double">
				<FieldRef field="x1333"/>
			</DerivedField>
			<DerivedField name="double(x911)" optype="continuous" dataType="double">
				<FieldRef field="x911"/>
			</DerivedField>
			<DerivedField name="double(x1035)" optype="continuous" dataType="double">
				<FieldRef field="x1035"/>
			</DerivedField>
			<DerivedField name="double(x1151)" optype="continuous" dataType="double">
				<FieldRef field="x1151"/>
			</DerivedField>
			<DerivedField name="double(x1004)" optype="continuous" dataType="double">
				<FieldRef field="x1004"/>
			</DerivedField>
			<DerivedField name="double(x496)" optype="continuous" dataType="double">
				<FieldRef field="x496"/>
			</DerivedField>
			<DerivedField name="double(x972)" optype="continuous" dataType="double">
				<FieldRef field="x972"/>
			</DerivedField>
			<DerivedField name="double(x1128)" optype="continuous" dataType="double">
				<FieldRef field="x1128"/>
			</DerivedField>
			<DerivedField name="double(x1089)" optype="continuous" dataType="double">
				<FieldRef field="x1089"/>
			</DerivedField>
			<DerivedField name="double(x805)" optype="continuous" dataType="double">
				<FieldRef field="x805"/>
			</DerivedField>
			<DerivedField name="double(x9)" optype="continuous" dataType="double">
				<FieldRef field="x9"/>
			</DerivedField>
			<DerivedField name="double(x973)" optype="continuous" dataType="double">
				<FieldRef field="x973"/>
			</DerivedField>
			<DerivedField name="double(x95)" optype="continuous" dataType="double">
				<FieldRef field="x95"/>
			</DerivedField>
			<DerivedField name="double(x415)" optype="continuous" dataType="double">
				<FieldRef field="x415"/>
			</DerivedField>
			<DerivedField name="double(x1302)" optype="continuous" dataType="double">
				<FieldRef field="x1302"/>
			</DerivedField>
			<DerivedField name="double(x576)" optype="continuous" dataType="double">
				<FieldRef field="x576"/>
			</DerivedField>
			<DerivedField name="double(x359)" optype="continuous" dataType="double">
				<FieldRef field="x359"/>
			</DerivedField>
			<DerivedField name="double(x528)" optype="continuous" dataType="double">
				<FieldRef field="x528"/>
			</DerivedField>
			<DerivedField name="double(x745)" optype="continuous" dataType="double">
				<FieldRef field="x745"/>
			</DerivedField>
			<DerivedField name="double(x477)" optype="continuous" dataType="double">
				<FieldRef field="x477"/>
			</DerivedField>
			<DerivedField name="double(x880)" optype="continuous" dataType="double">
				<FieldRef field="x880"/>
			</DerivedField>
			<DerivedField name="double(x11)" optype="continuous" dataType="double">
				<FieldRef field="x11"/>
			</DerivedField>
			<DerivedField name="double(x1087)" optype="continuous" dataType="double">
				<FieldRef field="x1087"/>
			</DerivedField>
			<DerivedField name="double(x900)" optype="continuous" dataType="double">
				<FieldRef field="x900"/>
			</DerivedField>
			<DerivedField name="double(x1085)" optype="continuous" dataType="double">
				<FieldRef field="x1085"/>
			</DerivedField>
			<DerivedField name="double(x2)" optype="continuous" dataType="double">
				<FieldRef field="x2"/>
			</DerivedField>
		</LocalTransformations>
		<Node score="1.0">
			<True/>
			<Node score="1.0">
				<SimplePredicate field="double(x229)" operator="lessOrEqual" value="0.5"/>
				<Node score="0.0">
					<SimplePredicate field="double(x1190)" operator="lessOrEqual" value="0.5"/>
					<Node score="0.0">
						<SimplePredicate field="double(x32)" operator="lessOrEqual" value="0.5"/>
						<Node score="0.0">
							<SimplePredicate field="double(x218)" operator="lessOrEqual" value="0.5"/>
							<Node score="1.0">
								<SimplePredicate field="double(x63)" operator="lessOrEqual" value="0.5"/>
								<Node score="0.0">
									<SimplePredicate field="double(x787)" operator="lessOrEqual" value="0.5"/>
									<Node score="0.0">
										<SimplePredicate field="double(x5)" operator="lessOrEqual" value="0.5"/>
										<Node score="1.0">
											<SimplePredicate field="double(x873)" operator="lessOrEqual" value="0.5"/>
											<Node score="0.0">
												<SimplePredicate field="double(x508)" operator="lessOrEqual" value="0.5"/>
												<Node score="0.0">
													<SimplePredicate field="double(x1307)" operator="lessOrEqual" value="0.5"/>
													<Node score="0.0">
														<SimplePredicate field="double(x1179)" operator="lessOrEqual" value="0.5"/>
														<Node score="0.0">
															<SimplePredicate field="double(x43)" operator="lessOrEqual" value="0.5"/>
															<Node score="0.0">
																<SimplePredicate field="double(x1427)" operator="lessOrEqual" value="0.5"/>
																<Node score="1.0">
																	<SimplePredicate field="double(x1489)" operator="lessOrEqual" value="0.5"/>
																	<Node score="0.0">
																		<SimplePredicate field="double(x439)" operator="lessOrEqual" value="0.5"/>
																		<Node score="0.0">
																			<SimplePredicate field="double(x384)" operator="lessOrEqual" value="0.5"/>
																			<Node score="1.0">
																				<SimplePredicate field="double(x1458)" operator="lessOrEqual" value="0.5"/>
																				<Node score="1.0">
																					<SimplePredicate field="double(x1411)" operator="lessOrEqual" value="0.5"/>
																					<Node score="1.0">
																						<SimplePredicate field="double(x17)" operator="lessOrEqual" value="0.5"/>
																						<Node score="0.0">
																							<SimplePredicate field="double(x198)" operator="lessOrEqual" value="0.5"/>
																							<Node score="0.0">
																								<SimplePredicate field="double(x94)" operator="lessOrEqual" value="0.5"/>
																								<Node score="1.0">
																									<SimplePredicate field="double(x1334)" operator="lessOrEqual" value="0.5"/>
																									<Node score="1.0">
																										<SimplePredicate field="double(x977)" operator="lessOrEqual" value="0.5"/>
																										<Node score="0.0">
																											<SimplePredicate field="double(x543)" operator="lessOrEqual" value="0.5"/>
																											<Node score="0.5779416122630412">
																												<SimplePredicate field="double(x1365)" operator="lessOrEqual" value="0.5"/>
																											</Node>
																										</Node>
																									</Node>
																								</Node>
																							</Node>
																						</Node>
																						<Node score="0.5">
																							<SimplePredicate field="double(x1177)" operator="lessOrEqual" value="0.5"/>
																							<Node score="0.0">
																								<SimplePredicate field="double(x36)" operator="lessOrEqual" value="0.5"/>
																								<Node score="1.0">
																									<SimplePredicate field="double(x167)" operator="lessOrEqual" value="0.5"/>
																								</Node>
																								<Node score="1.0">
																									<SimplePredicate field="double(x1208)" operator="lessOrEqual" value="0.5"/>
																									<Node score="0.7142857142857143">
																										<SimplePredicate field="double(x557)" operator="lessOrEqual" value="0.5"/>
																									</Node>
																								</Node>
																							</Node>
																							<Node score="0.0">
																								<SimplePredicate field="double(x167)" operator="lessOrEqual" value="0.5"/>
																							</Node>
																						</Node>
																						<Node score="1.0">
																							<SimplePredicate field="double(x247)" operator="lessOrEqual" value="0.5"/>
																							<Node score="0.16666666666666666">
																								<SimplePredicate field="double(x1401)" operator="lessOrEqual" value="0.5"/>
																								<Node score="0.0">
																									<SimplePredicate field="double(x495)" operator="lessOrEqual" value="0.5"/>
																								</Node>
																								<Node score="0.0">
																									<SimplePredicate field="double(x849)" operator="lessOrEqual" value="0.5"/>
																								</Node>
																							</Node>
																						</Node>
																						<Node score="0.0">
																							<SimplePredicate field="double(x1146)" operator="lessOrEqual" value="0.5"/>
																						</Node>
																						<Node score="0.8">
																							<SimplePredicate field="double(x650)" operator="lessOrEqual" value="0.5"/>
																							<Node score="1.0">
																								<SimplePredicate field="double(x929)" operator="lessOrEqual" value="0.5"/>
																							</Node>
																						</Node>
																						<Node score="0.0">
																							<SimplePredicate field="double(x1500)" operator="lessOrEqual" value="0.5"/>
																						</Node>
																					</Node>
																				</Node>
																			</Node>
																		</Node>
																		<Node score="1.0">
																			<SimplePredicate field="double(x1053)" operator="lessOrEqual" value="0.5"/>
																			<Node score="0.0">
																				<SimplePredicate field="double(x315)" operator="lessOrEqual" value="0.5"/>
																				<Node score="0.0">
																					<SimplePredicate field="double(x1116)" operator="lessOrEqual" value="0.5"/>
																					<Node score="0.0">
																						<SimplePredicate field="double(x1270)" operator="lessOrEqual" value="0.5"/>
																					</Node>
																					<Node score="0.6666666666666666">
																						<SimplePredicate field="double(x167)" operator="lessOrEqual" value="0.5"/>
																					</Node>
																				</Node>
																			</Node>
																			<Node score="1.0">
																				<SimplePredicate field="double(x1066)" operator="lessOrEqual" value="0.5"/>
																			</Node>
																			<Node score="0.0">
																				<SimplePredicate field="double(x1430)" operator="lessOrEqual" value="0.5"/>
																			</Node>
																			<Node score="0.0">
																				<SimplePredicate field="double(x123)" operator="lessOrEqual" value="0.5"/>
																				<Node score="0.0">
																					<SimplePredicate field="double(x157)" operator="lessOrEqual" value="0.5"/>
																					<Node score="0.5">
																						<SimplePredicate field="double(x1301)" operator="lessOrEqual" value="0.5"/>
																						<Node score="0.5">
																							<SimplePredicate field="double(x216)" operator="lessOrEqual" value="0.5"/>
																							<Node score="0.5">
																								<SimplePredicate field="double(x1518)" operator="lessOrEqual" value="0.5"/>
																							</Node>
																						</Node>
																						<Node score="0.5">
																							<SimplePredicate field="double(x167)" operator="lessOrEqual" value="0.5"/>
																						</Node>
																					</Node>
																					<Node score="0.5">
																						<SimplePredicate field="double(x433)" operator="lessOrEqual" value="0.5"/>
																					</Node>
																				</Node>
																			</Node>
																		</Node>
																		<Node score="0.5">
																			<SimplePredicate field="double(x1438)" operator="lessOrEqual" value="0.5"/>
																			<Node score="0.0">
																				<SimplePredicate field="double(x632)" operator="lessOrEqual" value="0.5"/>
																				<Node score="0.0">
																					<SimplePredicate field="double(x1363)" operator="lessOrEqual" value="0.5"/>
																					<Node score="1.0">
																						<SimplePredicate field="double(x539)" operator="lessOrEqual" value="0.5"/>
																						<Node score="0.0">
																							<SimplePredicate field="double(x322)" operator="lessOrEqual" value="0.5"/>
																							<Node score="1.0">
																								<SimplePredicate field="double(x1376)" operator="lessOrEqual" value="0.5"/>
																								<Node score="0.0">
																									<SimplePredicate field="double(x198)" operator="lessOrEqual" value="0.5"/>
																									<Node score="1.0">
																										<SimplePredicate field="double(x1253)" operator="lessOrEqual" value="0.5"/>
																									</Node>
																								</Node>
																								<Node score="0.375">
																									<SimplePredicate field="double(x433)" operator="lessOrEqual" value="0.5"/>
																								</Node>
																							</Node>
																						</Node>
																						<Node score="0.0">
																							<SimplePredicate field="double(x253)" operator="lessOrEqual" value="0.5"/>
																						</Node>
																						<Node score="0.5">
																							<SimplePredicate field="double(x154)" operator="lessOrEqual" value="0.5"/>
																						</Node>
																					</Node>
																				</Node>
																				<Node score="1.0">
																					<SimplePredicate field="double(x464)" operator="lessOrEqual" value="0.5"/>
																					<Node score="0.0">
																						<SimplePredicate field="double(x570)" operator="lessOrEqual" value="0.5"/>
																					</Node>
																				</Node>
																				<Node score="0.5714285714285714">
																					<SimplePredicate field="double(x1314)" operator="lessOrEqual" value="0.5"/>
																					<Node score="1.0">
																						<SimplePredicate field="double(x1332)" operator="lessOrEqual" value="0.5"/>
																					</Node>
																					<Node score="1.0">
																						<SimplePredicate field="double(x601)" operator="lessOrEqual" value="0.5"/>
																						<Node score="0.0">
																							<SimplePredicate field="double(x1469)" operator="lessOrEqual" value="0.5"/>
																						</Node>
																					</Node>
																					<Node score="1.0">
																						<SimplePredicate field="double(x898)" operator="lessOrEqual" value="0.5"/>
																					</Node>
																				</Node>
																			</Node>
																			<Node score="0.0">
																				<SimplePredicate field="double(x198)" operator="lessOrEqual" value="0.5"/>
																			</Node>
																			<Node score="1.0">
																				<SimplePredicate field="double(x991)" operator="lessOrEqual" value="0.5"/>
																				<Node score="0.3333333333333333">
																					<SimplePredicate field="double(x1425)" operator="lessOrEqual" value="0.5"/>
																					<Node score="0.5">
																						<SimplePredicate field="double(x562)" operator="lessOrEqual" value="0.5"/>
																					</Node>
																					<Node score="0.5">
																						<SimplePredicate field="double(x867)" operator="lessOrEqual" value="0.5"/>
																					</Node>
																				</Node>
																			</Node>
																			<Node score="0.0">
																				<SimplePredicate field="double(x500)" operator="lessOrEqual" value="0.5"/>
																			</Node>
																		</Node>
																	</Node>
																</Node>
															</Node>
														</Node>
														<Node score="0.0">
															<SimplePredicate field="double(x712)" operator="lessOrEqual" value="0.5"/>
															<Node score="0.0">
																<SimplePredicate field="double(x929)" operator="lessOrEqual" value="0.5"/>
															</Node>
															<Node score="0.0">
																<SimplePredicate field="double(x663)" operator="lessOrEqual" value="0.5"/>
																<Node score="0.0">
																	<SimplePredicate field="double(x1487)" operator="lessOrEqual" value="0.5"/>
																</Node>
																<Node score="0.6666666666666666">
																	<SimplePredicate field="double(x1314)" operator="lessOrEqual" value="0.5"/>
																</Node>
															</Node>
														</Node>
														<Node score="1.0">
															<SimplePredicate field="double(x1306)" operator="lessOrEqual" value="0.5"/>
															<Node score="0.0">
																<SimplePredicate field="double(x4)" operator="lessOrEqual" value="0.5"/>
																<Node score="0.0">
																	<SimplePredicate field="double(x898)" operator="lessOrEqual" value="0.5"/>
																</Node>
																<Node score="0.0">
																	<SimplePredicate field="double(x446)" operator="lessOrEqual" value="0.5"/>
																	<Node score="0.0">
																		<SimplePredicate field="double(x1332)" operator="lessOrEqual" value="0.5"/>
																		<Node score="1.0">
																			<SimplePredicate field="double(x1097)" operator="lessOrEqual" value="0.5"/>
																		</Node>
																	</Node>
																	<Node score="0.0">
																		<SimplePredicate field="double(x1053)" operator="lessOrEqual" value="0.5"/>
																		<Node score="0.0">
																			<SimplePredicate field="double(x619)" operator="lessOrEqual" value="0.5"/>
																		</Node>
																		<Node score="0.0">
																			<SimplePredicate field="double(x495)" operator="lessOrEqual" value="0.5"/>
																		</Node>
																		<Node score="0.5">
																			<SimplePredicate field="double(x818)" operator="lessOrEqual" value="0.5"/>
																		</Node>
																		<Node score="0.5">
																			<SimplePredicate field="double(x260)" operator="lessOrEqual" value="0.5"/>
																			<Node score="0.0">
																				<SimplePredicate field="double(x92)" operator="lessOrEqual" value="0.5"/>
																			</Node>
																		</Node>
																	</Node>
																	<Node score="0.0">
																		<SimplePredicate field="double(x1177)" operator="lessOrEqual" value="0.5"/>
																	</Node>
																	<Node score="0.0">
																		<SimplePredicate field="double(x1518)" operator="lessOrEqual" value="0.5"/>
																	</Node>
																	<Node score="0.0">
																		<SimplePredicate field="double(x340)" operator="lessOrEqual" value="0.5"/>
																	</Node>
																	<Node score="0.0">
																		<SimplePredicate field="double(x929)" operator="lessOrEqual" value="0.5"/>
																		<Node score="1.0">
																			<SimplePredicate field="double(x260)" operator="lessOrEqual" value="0.5"/>
																			<Node score="0.0">
																				<SimplePredicate field="double(x185)" operator="lessOrEqual" value="0.5"/>
																			</Node>
																		</Node>
																	</Node>
																	<Node score="0.5384615384615384">
																		<SimplePredicate field="double(x259)" operator="lessOrEqual" value="0.5"/>
																		<Node score="0.0">
																			<SimplePredicate field="double(x1394)" operator="lessOrEqual" value="0.5"/>
																		</Node>
																	</Node>
																</Node>
															</Node>
															<Node score="0.0">
																<SimplePredicate field="double(x371)" operator="lessOrEqual" value="0.5"/>
															</Node>
														</Node>
														<Node score="1.0">
															<SimplePredicate field="double(x1437)" operator="lessOrEqual" value="0.5"/>
															<Node score="0.5">
																<SimplePredicate field="double(x185)" operator="lessOrEqual" value="0.5"/>
																<Node score="0.5">
																	<SimplePredicate field="double(x291)" operator="lessOrEqual" value="0.5"/>
																</Node>
															</Node>
														</Node>
													</Node>
												</Node>
												<Node score="0.0">
													<SimplePredicate field="double(x1115)" operator="lessOrEqual" value="0.5"/>
													<Node score="0.0">
														<SimplePredicate field="double(x380)" operator="lessOrEqual" value="0.5"/>
														<Node score="0.5">
															<SimplePredicate field="double(x1159)" operator="lessOrEqual" value="0.5"/>
															<Node score="1.0">
																<SimplePredicate field="double(x1120)" operator="lessOrEqual" value="0.5"/>
															</Node>
															<Node score="1.0">
																<SimplePredicate field="double(x898)" operator="lessOrEqual" value="0.5"/>
															</Node>
															<Node score="1.0">
																<SimplePredicate field="double(x216)" operator="lessOrEqual" value="0.5"/>
															</Node>
														</Node>
														<Node score="1.0">
															<SimplePredicate field="double(x960)" operator="lessOrEqual" value="0.5"/>
														</Node>
													</Node>
												</Node>
												<Node score="1.0">
													<SimplePredicate field="double(x597)" operator="lessOrEqual" value="0.5"/>
													<Node score="1.0">
														<SimplePredicate field="double(x154)" operator="lessOrEqual" value="0.5"/>
													</Node>
													<Node score="1.0">
														<SimplePredicate field="double(x1177)" operator="lessOrEqual" value="0.5"/>
													</Node>
													<Node score="1.0">
														<SimplePredicate field="double(x686)" operator="lessOrEqual" value="0.5"/>
														<Node score="0.0">
															<SimplePredicate field="double(x198)" operator="lessOrEqual" value="0.5"/>
														</Node>
													</Node>
												</Node>
											</Node>
											<Node score="0.0">
												<SimplePredicate field="double(x1376)" operator="lessOrEqual" value="0.5"/>
												<Node score="0.0">
													<SimplePredicate field="double(x438)" operator="lessOrEqual" value="0.5"/>
													<Node score="1.0">
														<SimplePredicate field="double(x1115)" operator="lessOrEqual" value="0.5"/>
														<Node score="1.0">
															<SimplePredicate field="double(x1307)" operator="lessOrEqual" value="0.5"/>
															<Node score="0.0">
																<SimplePredicate field="double(x1010)" operator="lessOrEqual" value="0.5"/>
															</Node>
														</Node>
													</Node>
													<Node score="1.0">
														<SimplePredicate field="double(x154)" operator="lessOrEqual" value="0.5"/>
													</Node>
													<Node score="0.0">
														<SimplePredicate field="double(x92)" operator="lessOrEqual" value="0.5"/>
														<Node score="0.0">
															<SimplePredicate field="double(x743)" operator="lessOrEqual" value="0.5"/>
															<Node score="0.0">
																<SimplePredicate field="double(x942)" operator="lessOrEqual" value="0.5"/>
																<Node score="0.0">
																	<SimplePredicate field="double(x694)" operator="lessOrEqual" value="0.5"/>
																	<Node score="0.0">
																		<SimplePredicate field="double(x402)" operator="lessOrEqual" value="0.5"/>
																	</Node>
																	<Node score="0.0">
																		<SimplePredicate field="double(x1500)" operator="lessOrEqual" value="0.5"/>
																		<Node score="0.0">
																			<SimplePredicate field="double(x1345)" operator="lessOrEqual" value="0.5"/>
																			<Node score="1.0">
																				<SimplePredicate field="double(x1314)" operator="lessOrEqual" value="0.5"/>
																			</Node>
																		</Node>
																	</Node>
																</Node>
															</Node>
														</Node>
														<Node score="0.0">
															<SimplePredicate field="double(x446)" operator="lessOrEqual" value="0.5"/>
															<Node score="1.0">
																<SimplePredicate field="double(x1332)" operator="lessOrEqual" value="0.5"/>
															</Node>
															<Node score="0.0">
																<SimplePredicate field="double(x1146)" operator="lessOrEqual" value="0.5"/>
															</Node>
															<Node score="0.0">
																<SimplePredicate field="double(x291)" operator="lessOrEqual" value="0.5"/>
															</Node>
															<Node score="0.5">
																<SimplePredicate field="double(x1066)" operator="lessOrEqual" value="0.5"/>
																<Node score="0.625">
																	<SimplePredicate field="double(x1283)" operator="lessOrEqual" value="0.5"/>
																</Node>
															</Node>
														</Node>
													</Node>
													<Node score="0.0">
														<SimplePredicate field="double(x539)" operator="lessOrEqual" value="0.5"/>
														<Node score="0.0">
															<SimplePredicate field="double(x1332)" operator="lessOrEqual" value="0.5"/>
														</Node>
														<Node score="0.0">
															<SimplePredicate field="double(x619)" operator="lessOrEqual" value="0.5"/>
														</Node>
														<Node score="0.0">
															<SimplePredicate field="double(x61)" operator="lessOrEqual" value="0.5"/>
														</Node>
														<Node score="1.0">
															<SimplePredicate field="double(x1283)" operator="lessOrEqual" value="0.5"/>
															<Node score="0.0">
																<SimplePredicate field="double(x960)" operator="lessOrEqual" value="0.5"/>
																<Node score="0.625">
																	<SimplePredicate field="double(x1500)" operator="lessOrEqual" value="0.5"/>
																	<Node score="0.0">
																		<SimplePredicate field="double(x1177)" operator="lessOrEqual" value="0.5"/>
																		<Node score="0.6666666666666666">
																			<SimplePredicate field="double(x291)" operator="lessOrEqual" value="0.5"/>
																		</Node>
																	</Node>
																	<Node score="0.6666666666666666">
																		<SimplePredicate field="double(x309)" operator="lessOrEqual" value="0.5"/>
																	</Node>
																</Node>
															</Node>
															<Node score="1.0">
																<SimplePredicate field="double(x291)" operator="lessOrEqual" value="0.5"/>
															</Node>
															<Node score="1.0">
																<SimplePredicate field="double(x349)" operator="lessOrEqual" value="0.5"/>
																<Node score="0.625">
																	<SimplePredicate field="double(x1500)" operator="lessOrEqual" value="0.5"/>
																</Node>
															</Node>
														</Node>
													</Node>
												</Node>
												<Node score="0.0">
													<SimplePredicate field="double(x154)" operator="lessOrEqual" value="0.5"/>
													<Node score="0.5">
														<SimplePredicate field="double(x185)" operator="lessOrEqual" value="0.5"/>
													</Node>
												</Node>
												<Node score="1.0">
													<SimplePredicate field="double(x776)" operator="lessOrEqual" value="0.5"/>
												</Node>
											</Node>
											<Node score="1.0">
												<SimplePredicate field="double(x1097)" operator="lessOrEqual" value="0.5"/>
												<Node score="0.0">
													<SimplePredicate field="double(x1177)" operator="lessOrEqual" value="0.5"/>
												</Node>
												<Node score="0.0">
													<SimplePredicate field="double(x743)" operator="lessOrEqual" value="0.5"/>
												</Node>
											</Node>
										</Node>
										<Node score="0.0">
											<SimplePredicate field="double(x1337)" operator="lessOrEqual" value="0.5"/>
											<Node score="1.0">
												<SimplePredicate field="double(x750)" operator="lessOrEqual" value="0.5"/>
											</Node>
											<Node score="1.0">
												<SimplePredicate field="double(x719)" operator="lessOrEqual" value="0.5"/>
											</Node>
										</Node>
										<Node score="1.0">
											<SimplePredicate field="double(x686)" operator="lessOrEqual" value="0.5"/>
											<Node score="1.0">
												<SimplePredicate field="double(x681)" operator="lessOrEqual" value="0.5"/>
											</Node>
											<Node score="1.0">
												<SimplePredicate field="double(x991)" operator="lessOrEqual" value="0.5"/>
											</Node>
											<Node score="1.0">
												<SimplePredicate field="double(x725)" operator="lessOrEqual" value="0.5"/>
												<Node score="0.0">
													<SimplePredicate field="double(x960)" operator="lessOrEqual" value="0.5"/>
												</Node>
												<Node score="1.0">
													<SimplePredicate field="double(x1518)" operator="lessOrEqual" value="0.5"/>
												</Node>
												<Node score="0.5">
													<SimplePredicate field="double(x222)" operator="lessOrEqual" value="0.5"/>
												</Node>
											</Node>
										</Node>
										<Node score="0.0">
											<SimplePredicate field="double(x1177)" operator="lessOrEqual" value="0.5"/>
											<Node score="1.0">
												<SimplePredicate field="double(x1468)" operator="lessOrEqual" value="0.5"/>
											</Node>
										</Node>
										<Node score="1.0">
											<SimplePredicate field="double(x1377)" operator="lessOrEqual" value="0.5"/>
											<Node score="1.0">
												<SimplePredicate field="double(x774)" operator="lessOrEqual" value="0.5"/>
											</Node>
											<Node score="1.0">
												<SimplePredicate field="double(x508)" operator="lessOrEqual" value="0.5"/>
												<Node score="1.0">
													<SimplePredicate field="double(x123)" operator="lessOrEqual" value="0.5"/>
													<Node score="0.5">
														<SimplePredicate field="double(x216)" operator="lessOrEqual" value="0.5"/>
														<Node score="1.0">
															<SimplePredicate field="double(x1487)" operator="lessOrEqual" value="0.5"/>
														</Node>
														<Node score="0.0">
															<SimplePredicate field="double(x1394)" operator="lessOrEqual" value="0.5"/>
														</Node>
														<Node score="0.3333333333333333">
															<SimplePredicate field="double(x340)" operator="lessOrEqual" value="0.5"/>
															<Node score="0.3333333333333333">
																<SimplePredicate field="double(x651)" operator="lessOrEqual" value="0.5"/>
															</Node>
														</Node>
													</Node>
												</Node>
												<Node score="1.0">
													<SimplePredicate field="double(x52)" operator="lessOrEqual" value="0.5"/>
													<Node score="1.0">
														<SimplePredicate field="double(x568)" operator="lessOrEqual" value="0.5"/>
														<Node score="0.25">
															<SimplePredicate field="double(x479)" operator="lessOrEqual" value="0.5"/>
															<Node score="0.0">
																<SimplePredicate field="double(x247)" operator="lessOrEqual" value="0.5"/>
															</Node>
															<Node score="0.0">
																<SimplePredicate field="double(x469)" operator="lessOrEqual" value="0.5"/>
															</Node>
															<Node score="0.0">
																<SimplePredicate field="double(x1487)" operator="lessOrEqual" value="0.5"/>
															</Node>
														</Node>
													</Node>
												</Node>
											</Node>
										</Node>
										<Node score="1.0">
											<SimplePredicate field="double(x1468)" operator="lessOrEqual" value="0.5"/>
										</Node>
									</Node>
									<Node score="1.0">
										<SimplePredicate field="double(x35)" operator="lessOrEqual" value="0.5"/>
									</Node>
									<Node score="1.0">
										<SimplePredicate field="double(x402)" operator="lessOrEqual" value="0.5"/>
										<Node score="1.0">
											<SimplePredicate field="double(x346)" operator="lessOrEqual" value="0.5"/>
											<Node score="1.0">
												<SimplePredicate field="double(x358)" operator="lessOrEqual" value="0.5"/>
												<Node score="1.0">
													<SimplePredicate field="double(x1434)" operator="lessOrEqual" value="0.5"/>
													<Node score="1.0">
														<SimplePredicate field="double(x1214)" operator="lessOrEqual" value="0.5"/>
														<Node score="1.0">
															<SimplePredicate field="double(x1326)" operator="lessOrEqual" value="0.5"/>
															<Node score="0.0">
																<SimplePredicate field="double(x350)" operator="lessOrEqual" value="0.5"/>
																<Node score="1.0">
																	<SimplePredicate field="double(x322)" operator="lessOrEqual" value="0.5"/>
																	<Node score="0.0">
																		<SimplePredicate field="double(x185)" operator="lessOrEqual" value="0.5"/>
																	</Node>
																	<Node score="0.0">
																		<SimplePredicate field="double(x600)" operator="lessOrEqual" value="0.5"/>
																	</Node>
																	<Node score="0.0">
																		<SimplePredicate field="double(x1053)" operator="lessOrEqual" value="0.5"/>
																	</Node>
																</Node>
																<Node score="0.5">
																	<SimplePredicate field="double(x1363)" operator="lessOrEqual" value="0.5"/>
																	<Node score="0.5">
																		<SimplePredicate field="double(x619)" operator="lessOrEqual" value="0.5"/>
																	</Node>
																</Node>
															</Node>
														</Node>
													</Node>
												</Node>
											</Node>
										</Node>
									</Node>
									<Node score="0.0">
										<SimplePredicate field="double(x1120)" operator="lessOrEqual" value="0.5"/>
										<Node score="1.0">
											<SimplePredicate field="double(x1425)" operator="lessOrEqual" value="0.5"/>
										</Node>
										<Node score="0.0">
											<SimplePredicate field="double(x836)" operator="lessOrEqual" value="0.5"/>
										</Node>
										<Node score="0.0">
											<SimplePredicate field="double(x621)" operator="lessOrEqual" value="0.5"/>
											<Node score="0.0">
												<SimplePredicate field="double(x838)" operator="lessOrEqual" value="0.5"/>
												<Node score="1.0">
													<SimplePredicate field="double(x156)" operator="lessOrEqual" value="0.5"/>
													<Node score="1.0">
														<SimplePredicate field="double(x309)" operator="lessOrEqual" value="0.5"/>
													</Node>
													<Node score="1.0">
														<SimplePredicate field="double(x263)" operator="lessOrEqual" value="0.5"/>
														<Node score="1.0">
															<SimplePredicate field="double(x480)" operator="lessOrEqual" value="0.5"/>
															<Node score="1.0">
																<SimplePredicate field="double(x1146)" operator="lessOrEqual" value="0.5"/>
															</Node>
															<Node score="1.0">
																<SimplePredicate field="double(x526)" operator="lessOrEqual" value="0.5"/>
															</Node>
															<Node score="1.0">
																<SimplePredicate field="double(x697)" operator="lessOrEqual" value="0.5"/>
																<Node score="1.0">
																	<SimplePredicate field="double(x960)" operator="lessOrEqual" value="0.5"/>
																</Node>
																<Node score="1.0">
																	<SimplePredicate field="double(x1394)" operator="lessOrEqual" value="0.5"/>
																</Node>
																<Node score="0.4838709677419355">
																	<SimplePredicate field="double(x1252)" operator="lessOrEqual" value="0.5"/>
																	<Node score="1.0">
																		<SimplePredicate field="double(x743)" operator="lessOrEqual" value="0.5"/>
																	</Node>
																</Node>
															</Node>
														</Node>
													</Node>
												</Node>
											</Node>
										</Node>
									</Node>
									<Node score="1.0">
										<SimplePredicate field="double(x1487)" operator="lessOrEqual" value="0.5"/>
										<Node score="1.0">
											<SimplePredicate field="double(x1435)" operator="lessOrEqual" value="0.5"/>
											<Node score="1.0">
												<SimplePredicate field="double(x1431)" operator="lessOrEqual" value="0.5"/>
												<Node score="0.0">
													<SimplePredicate field="double(x1468)" operator="lessOrEqual" value="0.5"/>
												</Node>
												<Node score="0.0">
													<SimplePredicate field="double(x1053)" operator="lessOrEqual" value="0.5"/>
												</Node>
												<Node score="0.0">
													<SimplePredicate field="double(x526)" operator="lessOrEqual" value="0.5"/>
												</Node>
											</Node>
										</Node>
									</Node>
									<Node score="1.0">
										<SimplePredicate field="double(x1249)" operator="lessOrEqual" value="0.5"/>
										<Node score="0.0">
											<SimplePredicate field="double(x1084)" operator="lessOrEqual" value="0.5"/>
										</Node>
										<Node score="1.0">
											<SimplePredicate field="double(x185)" operator="lessOrEqual" value="0.5"/>
											<Node score="0.5">
												<SimplePredicate field="double(x1341)" operator="lessOrEqual" value="0.5"/>
												<Node score="0.0">
													<SimplePredicate field="double(x74)" operator="lessOrEqual" value="0.5"/>
												</Node>
											</Node>
										</Node>
										<Node score="0.8333333333333334">
											<SimplePredicate field="double(x726)" operator="lessOrEqual" value="0.5"/>
											<Node score="1.0">
												<SimplePredicate field="double(x943)" operator="lessOrEqual" value="0.5"/>
												<Node score="1.0">
													<SimplePredicate field="double(x509)" operator="lessOrEqual" value="0.5"/>
													<Node score="1.0">
														<SimplePredicate field="double(x1053)" operator="lessOrEqual" value="0.5"/>
													</Node>
													<Node score="0.8333333333333334">
														<SimplePredicate field="double(x1160)" operator="lessOrEqual" value="0.5"/>
														<Node score="0.0">
															<SimplePredicate field="double(x292)" operator="lessOrEqual" value="0.5"/>
															<Node score="1.0">
																<SimplePredicate field="double(x1407)" operator="lessOrEqual" value="0.5"/>
																<Node score="0.0">
																	<SimplePredicate field="double(x1159)" operator="lessOrEqual" value="0.5"/>
																	<Node score="1.0">
																		<SimplePredicate field="double(x75)" operator="lessOrEqual" value="0.5"/>
																		<Node score="0.8333333333333334">
																			<SimplePredicate field="double(x247)" operator="lessOrEqual" value="0.5"/>
																			<Node score="0.5504587155963303">
																				<SimplePredicate field="double(x1377)" operator="lessOrEqual" value="0.5"/>
																			</Node>
																		</Node>
																	</Node>
																	<Node score="1.0">
																		<SimplePredicate field="double(x278)" operator="lessOrEqual" value="0.5"/>
																	</Node>
																</Node>
															</Node>
														</Node>
														<Node score="1.0">
															<SimplePredicate field="double(x1394)" operator="lessOrEqual" value="0.5"/>
														</Node>
														<Node score="1.0">
															<SimplePredicate field="double(x1307)" operator="lessOrEqual" value="0.5"/>
														</Node>
													</Node>
													<Node score="1.0">
														<SimplePredicate field="double(x123)" operator="lessOrEqual" value="0.5"/>
													</Node>
													<Node score="0.8333333333333334">
														<SimplePredicate field="double(x533)" operator="lessOrEqual" value="0.5"/>
													</Node>
												</Node>
												<Node score="0.8571428571428571">
													<SimplePredicate field="double(x92)" operator="lessOrEqual" value="0.5"/>
												</Node>
											</Node>
											<Node score="1.0">
												<SimplePredicate field="double(x309)" operator="lessOrEqual" value="0.5"/>
											</Node>
											<Node score="0.8571428571428571">
												<SimplePredicate field="double(x1377)" operator="lessOrEqual" value="0.5"/>
												<Node score="1.0">
													<SimplePredicate field="double(x509)" operator="lessOrEqual" value="0.5"/>
												</Node>
												<Node score="1.0">
													<SimplePredicate field="double(x1177)" operator="lessOrEqual" value="0.5"/>
												</Node>
											</Node>
										</Node>
										<Node score="1.0">
											<SimplePredicate field="double(x1377)" operator="lessOrEqual" value="0.5"/>
											<Node score="1.0">
												<SimplePredicate field="double(x75)" operator="lessOrEqual" value="0.5"/>
												<Node score="0.8333333333333334">
													<SimplePredicate field="double(x1177)" operator="lessOrEqual" value="0.5"/>
												</Node>
												<Node score="1.0">
													<SimplePredicate field="double(x292)" operator="lessOrEqual" value="0.5"/>
												</Node>
												<Node score="0.8571428571428571">
													<SimplePredicate field="double(x943)" operator="lessOrEqual" value="0.5"/>
												</Node>
											</Node>
										</Node>
									</Node>
								</Node>
								<Node score="0.0">
									<SimplePredicate field="double(x1456)" operator="lessOrEqual" value="0.5"/>
									<Node score="1.0">
										<SimplePredicate field="double(x718)" operator="lessOrEqual" value="0.5"/>
										<Node score="0.0">
											<SimplePredicate field="double(x40)" operator="lessOrEqual" value="0.5"/>
											<Node score="0.0">
												<SimplePredicate field="double(x588)" operator="lessOrEqual" value="0.5"/>
											</Node>
											<Node score="0.0">
												<SimplePredicate field="double(x681)" operator="lessOrEqual" value="0.5"/>
											</Node>
											<Node score="0.3333333333333333">
												<SimplePredicate field="double(x1439)" operator="lessOrEqual" value="0.5"/>
											</Node>
										</Node>
									</Node>
									<Node score="1.0">
										<SimplePredicate field="double(x97)" operator="lessOrEqual" value="0.5"/>
									</Node>
									<Node score="0.0">
										<SimplePredicate field="double(x601)" operator="lessOrEqual" value="0.5"/>
									</Node>
									<Node score="0.5">
										<SimplePredicate field="double(x126)" operator="lessOrEqual" value="0.5"/>
										<Node score="0.5">
											<SimplePredicate field="double(x167)" operator="lessOrEqual" value="0.5"/>
											<Node score="0.5">
												<SimplePredicate field="double(x154)" operator="lessOrEqual" value="0.5"/>
											</Node>
										</Node>
										<Node score="0.5">
											<SimplePredicate field="double(x198)" operator="lessOrEqual" value="0.5"/>
										</Node>
									</Node>
								</Node>
								<Node score="0.0">
									<SimplePredicate field="double(x136)" operator="lessOrEqual" value="0.5"/>
									<Node score="0.0">
										<SimplePredicate field="double(x756)" operator="lessOrEqual" value="0.5"/>
										<Node score="0.0">
											<SimplePredicate field="double(x655)" operator="lessOrEqual" value="0.5"/>
											<Node score="0.0">
												<SimplePredicate field="double(x681)" operator="lessOrEqual" value="0.5"/>
												<Node score="1.0">
													<SimplePredicate field="double(x1066)" operator="lessOrEqual" value="0.5"/>
													<Node score="1.0">
														<SimplePredicate field="double(x123)" operator="lessOrEqual" value="0.5"/>
													</Node>
													<Node score="1.0">
														<SimplePredicate field="double(x836)" operator="lessOrEqual" value="0.5"/>
													</Node>
													<Node score="1.0">
														<SimplePredicate field="double(x1177)" operator="lessOrEqual" value="0.5"/>
														<Node score="1.0">
															<SimplePredicate field="double(x743)" operator="lessOrEqual" value="0.5"/>
															<Node score="0.0">
																<SimplePredicate field="double(x570)" operator="lessOrEqual" value="0.5"/>
															</Node>
														</Node>
													</Node>
													<Node score="0.0">
														<SimplePredicate field="double(x1146)" operator="lessOrEqual" value="0.5"/>
													</Node>
												</Node>
											</Node>
											<Node score="0.0">
												<SimplePredicate field="double(x1345)" operator="lessOrEqual" value="0.5"/>
												<Node score="0.0">
													<SimplePredicate field="double(x185)" operator="lessOrEqual" value="0.5"/>
												</Node>
												<Node score="0.6666666666666666">
													<SimplePredicate field="double(x12)" operator="lessOrEqual" value="0.5"/>
													<Node score="1.0">
														<SimplePredicate field="double(x61)" operator="lessOrEqual" value="0.5"/>
													</Node>
													<Node score="1.0">
														<SimplePredicate field="double(x30)" operator="lessOrEqual" value="0.5"/>
													</Node>
													<Node score="1.0">
														<SimplePredicate field="double(x1332)" operator="lessOrEqual" value="0.5"/>
													</Node>
													<Node score="0.5">
														<SimplePredicate field="double(x570)" operator="lessOrEqual" value="0.5"/>
													</Node>
													<Node score="0.5">
														<SimplePredicate field="double(x1221)" operator="lessOrEqual" value="0.5"/>
														<Node score="1.0">
															<SimplePredicate field="double(x353)" operator="lessOrEqual" value="0.5"/>
															<Node score="0.5">
																<SimplePredicate field="double(x1022)" operator="lessOrEqual" value="0.5"/>
															</Node>
														</Node>
														<Node score="0.6666666666666666">
															<SimplePredicate field="double(x1022)" operator="lessOrEqual" value="0.5"/>
														</Node>
													</Node>
												</Node>
												<Node score="0.5">
													<SimplePredicate field="double(x43)" operator="lessOrEqual" value="0.5"/>
													<Node score="0.5">
														<SimplePredicate field="double(x1239)" operator="lessOrEqual" value="0.5"/>
													</Node>
												</Node>
											</Node>
										</Node>
									</Node>
									<Node score="1.0">
										<SimplePredicate field="double(x717)" operator="lessOrEqual" value="0.5"/>
										<Node score="0.0">
											<SimplePredicate field="double(x855)" operator="lessOrEqual" value="0.5"/>
											<Node score="0.0">
												<SimplePredicate field="double(x252)" operator="lessOrEqual" value="0.5"/>
											</Node>
											<Node score="1.0">
												<SimplePredicate field="double(x508)" operator="lessOrEqual" value="0.5"/>
											</Node>
										</Node>
									</Node>
									<Node score="1.0">
										<SimplePredicate field="double(x322)" operator="lessOrEqual" value="0.5"/>
									</Node>
								</Node>
								<Node score="0.0">
									<SimplePredicate field="double(x433)" operator="lessOrEqual" value="0.5"/>
									<Node score="1.0">
										<SimplePredicate field="double(x849)" operator="lessOrEqual" value="0.5"/>
									</Node>
									<Node score="0.5">
										<SimplePredicate field="double(x1500)" operator="lessOrEqual" value="0.5"/>
										<Node score="0.5">
											<SimplePredicate field="double(x1333)" operator="lessOrEqual" value="0.5"/>
											<Node score="0.5">
												<SimplePredicate field="double(x35)" operator="lessOrEqual" value="0.5"/>
												<Node score="0.5">
													<SimplePredicate field="double(x911)" operator="lessOrEqual" value="0.5"/>
												</Node>
											</Node>
											<Node score="0.5">
												<SimplePredicate field="double(x1084)" operator="lessOrEqual" value="0.5"/>
											</Node>
										</Node>
										<Node score="0.5">
											<SimplePredicate field="double(x1425)" operator="lessOrEqual" value="0.5"/>
											<Node score="0.5">
												<SimplePredicate field="double(x1301)" operator="lessOrEqual" value="0.5"/>
											</Node>
											<Node score="0.5">
												<SimplePredicate field="double(x1066)" operator="lessOrEqual" value="0.5"/>
											</Node>
										</Node>
										<Node score="0.5">
											<SimplePredicate field="double(x1035)" operator="lessOrEqual" value="0.5"/>
										</Node>
									</Node>
								</Node>
								<Node score="0.0">
									<SimplePredicate field="double(x1151)" operator="lessOrEqual" value="0.5"/>
									<Node score="0.0">
										<SimplePredicate field="double(x898)" operator="lessOrEqual" value="0.5"/>
									</Node>
									<Node score="0.6666666666666666">
										<SimplePredicate field="double(x1004)" operator="lessOrEqual" value="0.5"/>
										<Node score="0.0">
											<SimplePredicate field="double(x1394)" operator="lessOrEqual" value="0.5"/>
										</Node>
										<Node score="0.0">
											<SimplePredicate field="double(x1425)" operator="lessOrEqual" value="0.5"/>
										</Node>
									</Node>
								</Node>
							</Node>
						</Node>
					</Node>
				</Node>
				<Node score="0.0">
					<SimplePredicate field="double(x322)" operator="lessOrEqual" value="0.5"/>
					<Node score="0.0">
						<SimplePredicate field="double(x496)" operator="lessOrEqual" value="0.5"/>
						<Node score="0.0">
							<SimplePredicate field="double(x167)" operator="lessOrEqual" value="0.5"/>
							<Node score="0.0">
								<SimplePredicate field="double(x123)" operator="lessOrEqual" value="0.5"/>
								<Node score="0.0">
									<SimplePredicate field="double(x1022)" operator="lessOrEqual" value="0.5"/>
								</Node>
								<Node score="0.0">
									<SimplePredicate field="double(x972)" operator="lessOrEqual" value="0.5"/>
									<Node score="1.0">
										<SimplePredicate field="double(x911)" operator="lessOrEqual" value="0.5"/>
									</Node>
								</Node>
							</Node>
							<Node score="0.0">
								<SimplePredicate field="double(x154)" operator="lessOrEqual" value="0.5"/>
							</Node>
							<Node score="0.0">
								<SimplePredicate field="double(x278)" operator="lessOrEqual" value="0.5"/>
								<Node score="0.0">
									<SimplePredicate field="double(x1438)" operator="lessOrEqual" value="0.5"/>
									<Node score="0.0">
										<SimplePredicate field="double(x260)" operator="lessOrEqual" value="0.5"/>
										<Node score="1.0">
											<SimplePredicate field="double(x1252)" operator="lessOrEqual" value="0.5"/>
										</Node>
									</Node>
								</Node>
								<Node score="1.0">
									<SimplePredicate field="double(x61)" operator="lessOrEqual" value="0.5"/>
									<Node score="1.0">
										<SimplePredicate field="double(x384)" operator="lessOrEqual" value="0.5"/>
										<Node score="0.0">
											<SimplePredicate field="double(x632)" operator="lessOrEqual" value="0.5"/>
										</Node>
									</Node>
								</Node>
								<Node score="1.0">
									<SimplePredicate field="double(x774)" operator="lessOrEqual" value="0.5"/>
								</Node>
							</Node>
							<Node score="1.0">
								<SimplePredicate field="double(x1022)" operator="lessOrEqual" value="0.5"/>
							</Node>
							<Node score="1.0">
								<SimplePredicate field="double(x1363)" operator="lessOrEqual" value="0.5"/>
								<Node score="1.0">
									<SimplePredicate field="double(x1128)" operator="lessOrEqual" value="0.5"/>
									<Node score="1.0">
										<SimplePredicate field="double(x1407)" operator="lessOrEqual" value="0.5"/>
										<Node score="1.0">
											<SimplePredicate field="double(x991)" operator="lessOrEqual" value="0.5"/>
										</Node>
										<Node score="0.0">
											<SimplePredicate field="double(x1345)" operator="lessOrEqual" value="0.5"/>
										</Node>
									</Node>
								</Node>
								<Node score="1.0">
									<SimplePredicate field="double(x247)" operator="lessOrEqual" value="0.5"/>
									<Node score="0.0">
										<SimplePredicate field="double(x1221)" operator="lessOrEqual" value="0.5"/>
									</Node>
								</Node>
								<Node score="1.0">
									<SimplePredicate field="double(x1089)" operator="lessOrEqual" value="0.5"/>
									<Node score="1.0">
										<SimplePredicate field="double(x805)" operator="lessOrEqual" value="0.5"/>
									</Node>
									<Node score="1.0">
										<SimplePredicate field="double(x557)" operator="lessOrEqual" value="0.5"/>
									</Node>
									<Node score="0.0">
										<SimplePredicate field="double(x43)" operator="lessOrEqual" value="0.5"/>
										<Node score="1.0">
											<SimplePredicate field="double(x309)" operator="lessOrEqual" value="0.5"/>
										</Node>
									</Node>
								</Node>
							</Node>
							<Node score="0.0">
								<SimplePredicate field="double(x526)" operator="lessOrEqual" value="0.5"/>
							</Node>
							<Node score="0.0">
								<SimplePredicate field="double(x247)" operator="lessOrEqual" value="0.5"/>
								<Node score="1.0">
									<SimplePredicate field="double(x539)" operator="lessOrEqual" value="0.5"/>
								</Node>
							</Node>
							<Node score="0.6666666666666666">
								<SimplePredicate field="double(x1221)" operator="lessOrEqual" value="0.5"/>
								<Node score="1.0">
									<SimplePredicate field="double(x1425)" operator="lessOrEqual" value="0.5"/>
									<Node score="0.0">
										<SimplePredicate field="double(x9)" operator="lessOrEqual" value="0.5"/>
										<Node score="0.0">
											<SimplePredicate field="double(x756)" operator="lessOrEqual" value="0.5"/>
											<Node score="0.0">
												<SimplePredicate field="double(x12)" operator="lessOrEqual" value="0.5"/>
												<Node score="0.4444444444444444">
													<SimplePredicate field="double(x74)" operator="lessOrEqual" value="0.5"/>
													<Node score="0.0">
														<SimplePredicate field="double(x1115)" operator="lessOrEqual" value="0.5"/>
													</Node>
													<Node score="0.42857142857142855">
														<SimplePredicate field="double(x973)" operator="lessOrEqual" value="0.5"/>
													</Node>
												</Node>
											</Node>
										</Node>
										<Node score="0.0">
											<SimplePredicate field="double(x557)" operator="lessOrEqual" value="0.5"/>
										</Node>
										<Node score="0.25">
											<SimplePredicate field="double(x43)" operator="lessOrEqual" value="0.5"/>
										</Node>
									</Node>
								</Node>
								<Node score="0.0">
									<SimplePredicate field="double(x30)" operator="lessOrEqual" value="0.5"/>
								</Node>
								<Node score="1.0">
									<SimplePredicate field="double(x756)" operator="lessOrEqual" value="0.5"/>
								</Node>
								<Node score="0.5714285714285714">
									<SimplePredicate field="double(x539)" operator="lessOrEqual" value="0.5"/>
								</Node>
							</Node>
						</Node>
					</Node>
				</Node>
				<Node score="0.0">
					<SimplePredicate field="double(x836)" operator="lessOrEqual" value="0.5"/>
					<Node score="1.0">
						<SimplePredicate field="double(x1252)" operator="lessOrEqual" value="0.5"/>
					</Node>
					<Node score="0.0">
						<SimplePredicate field="double(x1301)" operator="lessOrEqual" value="0.5"/>
						<Node score="0.5">
							<SimplePredicate field="double(x95)" operator="lessOrEqual" value="0.5"/>
							<Node score="0.0">
								<SimplePredicate field="double(x198)" operator="lessOrEqual" value="0.5"/>
								<Node score="1.0">
									<SimplePredicate field="double(x353)" operator="lessOrEqual" value="0.5"/>
									<Node score="1.0">
										<SimplePredicate field="double(x942)" operator="lessOrEqual" value="0.5"/>
									</Node>
									<Node score="1.0">
										<SimplePredicate field="double(x185)" operator="lessOrEqual" value="0.5"/>
									</Node>
									<Node score="0.0">
										<SimplePredicate field="double(x415)" operator="lessOrEqual" value="0.5"/>
									</Node>
								</Node>
								<Node score="0.5">
									<SimplePredicate field="double(x1337)" operator="lessOrEqual" value="0.5"/>
									<Node score="0.5">
										<SimplePredicate field="double(x1089)" operator="lessOrEqual" value="0.5"/>
										<Node score="0.5">
											<SimplePredicate field="double(x154)" operator="lessOrEqual" value="0.5"/>
											<Node score="0.5">
												<SimplePredicate field="double(x433)" operator="lessOrEqual" value="0.5"/>
											</Node>
										</Node>
									</Node>
									<Node score="0.5">
										<SimplePredicate field="double(x1407)" operator="lessOrEqual" value="0.5"/>
									</Node>
								</Node>
								<Node score="0.5">
									<SimplePredicate field="double(x154)" operator="lessOrEqual" value="0.5"/>
									<Node score="0.5">
										<SimplePredicate field="double(x1456)" operator="lessOrEqual" value="0.5"/>
									</Node>
								</Node>
							</Node>
							<Node score="1.0">
								<SimplePredicate field="double(x500)" operator="lessOrEqual" value="0.5"/>
							</Node>
						</Node>
					</Node>
				</Node>
				<Node score="0.0">
					<SimplePredicate field="double(x36)" operator="lessOrEqual" value="0.5"/>
					<Node score="1.0">
						<SimplePredicate field="double(x973)" operator="lessOrEqual" value="0.5"/>
						<Node score="0.0">
							<SimplePredicate field="double(x557)" operator="lessOrEqual" value="0.5"/>
						</Node>
					</Node>
				</Node>
			</Node>
			<Node score="0.0">
				<SimplePredicate field="double(x1097)" operator="lessOrEqual" value="0.5"/>
				<Node score="0.0">
					<SimplePredicate field="double(x1159)" operator="lessOrEqual" value="0.5"/>
					<Node score="0.0">
						<SimplePredicate field="double(x1128)" operator="lessOrEqual" value="0.5"/>
						<Node score="1.0">
							<SimplePredicate field="double(x1332)" operator="lessOrEqual" value="0.5"/>
							<Node score="0.0">
								<SimplePredicate field="double(x681)" operator="lessOrEqual" value="0.5"/>
							</Node>
							<Node score="0.0">
								<SimplePredicate field="double(x1115)" operator="lessOrEqual" value="0.5"/>
								<Node score="1.0">
									<SimplePredicate field="double(x1363)" operator="lessOrEqual" value="0.5"/>
								</Node>
							</Node>
						</Node>
						<Node score="0.0">
							<SimplePredicate field="double(x1487)" operator="lessOrEqual" value="0.5"/>
						</Node>
						<Node score="0.0">
							<SimplePredicate field="double(x1456)" operator="lessOrEqual" value="0.5"/>
							<Node score="0.5">
								<SimplePredicate field="double(x260)" operator="lessOrEqual" value="0.5"/>
								<Node score="0.0">
									<SimplePredicate field="double(x12)" operator="lessOrEqual" value="0.5"/>
									<Node score="0.0">
